{
    "levels":[
       {
          "inputs":[
             0.031025339604397906,
             0,
             0,
             0,
             0,
             0,
             0,
             0,
             0.13953001867459747,
             0.7099203423145191
          ],
          "outputs":[
             1,
             0,
             0,
             0,
             0,
             0,
             0,
             1
          ],
          "biases":[
             -0.026410966850917154,
             -0.028320119315341577,
             0.05277243463174343,
             0.20723099601413464,
             0.179655591564364,
             0.22830073022499467,
             0.004819919827489044,
             -0.008999402654785216
          ],
          "weights":[
             [
                0.20003248549279637,
                -0.06388066835007317,
                -0.08120796631683332,
                0.15487574413209693,
                -0.15474399527844188,
                -0.01184245754771631,
                -0.11634815488108186,
                0.09971029082347296
             ],
             [
                -0.05886835477839711,
                -0.161193466155951,
                -0.10343487238088431,
                0.003931212401222633,
                -0.06569593648457782,
                -0.10202076438500912,
                0.0639794034248154,
                0.07608092405084049
             ],
             [
                0.10081901301748845,
                0.004657707473731518,
                -0.0036829364285869883,
                -0.03567985312795177,
                -0.1729294409808938,
                -0.08869025922876077,
                -0.0072746148640618,
                -0.03491138348014969
             ],
             [
                -0.13553646199113067,
                -0.18543871493829414,
                -0.1546520765747597,
                0.09659354792195987,
                -0.010363424559931934,
                0.09195180952417091,
                0.10499156028784977,
                -0.031315082354434885
             ],
             [
                0.1502405748066249,
                -0.04547486647561376,
                0.08697477811293478,
                0.051724856438343965,
                -0.12996354572074606,
                -0.0643198884294288,
                0.10376785172912789,
                0.08310443105919349
             ],
             [
                0.05425611593226198,
                0.06366830749498185,
                -0.1975556542182555,
                -0.2636580562182881,
                -0.1088669690627002,
                -0.1747782224903878,
                0.05077357728967374,
                -0.11587402646615376
             ],
             [
                -0.020570936469778436,
                0.12259260830754956,
                0.01913656545693321,
                -0.024695368413210746,
                -0.14396671898323085,
                0.15988851933897613,
                -0.1504898483721949,
                0.08031756210553262
             ],
             [
                -0.07503746926873597,
                0.24869626206574688,
                0.0658538245179787,
                0.14421884113905087,
                0.172370529727166,
                -0.04644326887159194,
                0.04946137412309791,
                0.15666077894197047
             ],
             [
                0.06669917051296219,
                -0.04053477248777587,
                -0.016877867797356186,
                -0.06728059450541417,
                -0.055862002563829935,
                0.13128580911726556,
                -0.025788078366097162,
                0.09799784696057469
             ],
             [
                0.14877169845417046,
                -0.163551075569837,
                -0.07555154221726766,
                0.12189972827923913,
                -0.005353114892353569,
                -0.0749138756373099,
                -0.13713249070229908,
                -0.0017230117451475986
             ]
          ]
       },
       {
          "inputs":[
             1,
             0,
             0,
             0,
             0,
             0,
             0,
             1
          ],
          "outputs":[
             1,
             1,
             1,
             0
          ],
          "biases":[
             -0.05306666981909905,
             0.08513131071881719,
             0.007565657597130597,
             0.07108694317393734
          ],
          "weights":[
             [
                -0.04209552253681223,
                0.2851698304546901,
                0.06690033626810925,
                0.021320633078749554
             ],
             [
                0.036189461065685706,
                0.14507760199754427,
                -0.174376140978511,
                0.026128253613704314
             ],
             [
                0.0628031474601058,
                0.0013856091945711737,
                0.015804561624698076,
                0.08444297795601774
             ],
             [
                -0.008456027637178103,
                -0.14350122742873525,
                0.20739930105965546,
                0.035648555594071964
             ],
             [
                -0.07880000192798116,
                -0.025502064091800093,
                0.0749056473664751,
                0.06980606394100448
             ],
             [
                0.12361155897239971,
                -0.001608269666574614,
                -0.06683727414693018,
                0.22003950953481696
             ],
             [
                0.005579391567930234,
                -0.2173513941148645,
                0.08894896508303018,
                -0.1044176839420069
             ],
             [
                0.09506269543340568,
                -0.008545284122553619,
                -0.01931735688986433,
                -0.09999134635699622
             ]
          ]
       }
    ]
 }