{
   "levels":[
      {
         "inputs":[
            0.4679696642607011,
            0.45183035193114707,
            0.3543728862335702,
            0.0797765397418223,
            0,
            0,
            0,
            0.38696491255478116,
            0,
            0
         ],
         "outputs":[
            1,
            0,
            0,
            0,
            0,
            0,
            1,
            1
         ],
         "biases":[
            -0.02554213270167845,
            -0.023931283995722065,
            0.04242119794344134,
            0.16263172012934235,
            0.16258663133687185,
            0.2041283685692296,
            -0.02690164262923058,
            -0.01600876430282838
         ],
         "weights":[
            [
               0.20807418591129462,
               -0.07383889320991133,
               -0.08915399675605083,
               0.13796690922962968,
               -0.11800831741581518,
               0.010211055017179407,
               -0.10342019596615644,
               0.1096418897502838
            ],
            [
               -0.04359564729593282,
               -0.14110239830145457,
               -0.09282064716476689,
               -0.014122759021344734,
               -0.05094634404585865,
               -0.09638657318200902,
               0.054943542904850144,
               0.08106233992522505
            ],
            [
               0.08957358060522935,
               -0.002242420115940946,
               0.003245481088699564,
               -0.05172720039347538,
               -0.14275180421462022,
               -0.07850586175689277,
               -0.01648493428133313,
               -0.02967603630346228
            ],
            [
               -0.12484861287180966,
               -0.16380827624550875,
               -0.14387836059406303,
               0.09206652995226547,
               -0.018972358696560165,
               0.11488380975666937,
               0.10283765492357008,
               -0.004388498341133189
            ],
            [
               0.11795922258366565,
               -0.058224788397206566,
               0.08190034823613604,
               0.06262300640230059,
               -0.14472391198626258,
               -0.036462190647072956,
               0.114473646024113,
               0.05442354892580483
            ],
            [
               0.03144585024869027,
               0.06110784581467061,
               -0.15908733685014784,
               -0.25162066349298756,
               -0.06924425608950885,
               -0.16076453814968925,
               0.047672392053897075,
               -0.11692780293584794
            ],
            [
               0.0025221751997178553,
               0.13776105752507167,
               0.0013496636038552055,
               -0.02280398984246249,
               -0.1277882778725615,
               0.15442988163148913,
               -0.1416998325863738,
               0.057356884376062026
            ],
            [
               -0.05450461330503951,
               0.2278257607342071,
               0.04621312419733553,
               0.14273313142970068,
               0.15035861849761076,
               -0.039803276565583995,
               0.051402412226092174,
               0.1523462843067875
            ],
            [
               0.08458443479315479,
               -0.023574968274528214,
               0.02148149881069205,
               -0.033532898755272975,
               -0.08121322090382475,
               0.10953382210282779,
               0.008065762177651847,
               0.06212146697621715
            ],
            [
               0.14777656011903093,
               -0.12578899925206216,
               -0.0677163125340025,
               0.09482670317241096,
               -0.01182717133736749,
               -0.07252739766421895,
               -0.13394718350559823,
               0.0002510319876715345
            ]
         ]
      },
      {
         "inputs":[
            1,
            0,
            0,
            0,
            0,
            0,
            1,
            1
         ],
         "outputs":[
            1,
            0,
            1,
            0
         ],
         "biases":[
            -0.04037612730172259,
            0.08132338820106447,
            0.008965630853830113,
            0.09999990908630808
         ],
         "weights":[
            [
               -0.05159035254329684,
               0.26099101384089285,
               0.04812440014279141,
               0.011232720509809058
            ],
            [
               0.0285191753931495,
               0.1407600995778128,
               -0.17163234407703182,
               0.0011060589373288804
            ],
            [
               0.05276901169841424,
               -0.02366823734920962,
               -0.018818685484609667,
               0.0653344626842913
            ],
            [
               -0.0026149918775343027,
               -0.14778221483682105,
               0.18564280397640887,
               0.04272928191439292
            ],
            [
               -0.07059641869698532,
               -0.010760040626217514,
               0.07541860154903011,
               0.09676018206988007
            ],
            [
               0.10392146396609397,
               0.007098762965481182,
               -0.052994353709990595,
               0.20561623612278934
            ],
            [
               0.007728869532507205,
               -0.1942595846863158,
               0.07277552901226167,
               -0.08048198127590012
            ],
            [
               0.11133211321110792,
               -0.030634507581222138,
               -0.0284576760352933,
               -0.09292296739640464
            ]
         ]
      }
   ]
}